<?xml version="1.0"?>
<opencv_storage>
<cascade>
  <stageType>BOOST</stageType>
  <featureType>HAAR</featureType>
  <height>20</height>
  <width>20</width>
  <stageParams>
    <boostType>GAB</boostType>
    <minHitRate>9.9989998340606689e-01</minHitRate>
    <maxFalseAlarm>4.9999998882412910e-03</maxFalseAlarm>
    <weightTrimRate>9.4999999999999996e-01</weightTrimRate>
    <maxDepth>1</maxDepth>
    <maxWeakCount>100</maxWeakCount></stageParams>
  <featureParams>
    <maxCatCount>0</maxCatCount>
    <featSize>1</featSize>
    <mode>ALL</mode></featureParams>
  <stageNum>2</stageNum>
  <stages>
    <!-- stage 0 -->
    <_>
      <maxWeakCount>2</maxWeakCount>
      <stageThreshold>-5.6151794269680977e-03</stageThreshold>
      <weakClassifiers>
        <_>
          <internalNodes>
            0 -1 5 2.6166731119155884e-01</internalNodes>
          <leafValues>
            -9.9942791461944580e-01 9.9857223033905029e-01</leafValues></_>
        <_>
          <internalNodes>
            0 -1 6 1.7024537920951843e-01</internalNodes>
          <leafValues>
            -9.9772155284881592e-01 9.9381273984909058e-01</leafValues></_></weakClassifiers></_>
    <!-- stage 1 -->
    <_>
      <maxWeakCount>8</maxWeakCount>
      <stageThreshold>7.7431041002273560e-01</stageThreshold>
      <weakClassifiers>
        <_>
          <internalNodes>
            0 -1 0 -4.6137429773807526e-02</internalNodes>
          <leafValues>
            9.1443115472793579e-01 -9.7400188446044922e-01</leafValues></_>
        <_>
          <internalNodes>
            0 -1 3 -3.9487618952989578e-02</internalNodes>
          <leafValues>
            8.4881377220153809e-01 -9.7014129161834717e-01</leafValues></_>
        <_>
          <internalNodes>
            0 -1 1 2.5770306587219238e-02</internalNodes>
          <leafValues>
            -8.4761703014373779e-01 7.5570154190063477e-01</leafValues></_>
        <_>
          <internalNodes>
            0 -1 9 6.1305896379053593e-03</internalNodes>
          <leafValues>
            -8.8648259639739990e-01 6.9538098573684692e-01</leafValues></_>
        <_>
          <internalNodes>
            0 -1 8 -6.5147542045451701e-05</internalNodes>
          <leafValues>
            -9.9866396188735962e-01 5.8262950181961060e-01</leafValues></_>
        <_>
          <internalNodes>
            0 -1 4 4.5718681812286377e-01</internalNodes>
          <leafValues>
            -8.6755806207656860e-01 6.4900177717208862e-01</leafValues></_>
        <_>
          <internalNodes>
            0 -1 2 1.1562800034880638e-02</internalNodes>
          <leafValues>
            -7.1903342008590698e-01 8.5413610935211182e-01</leafValues></_>
        <_>
          <internalNodes>
            0 -1 7 -2.2586540580959991e-05</internalNodes>
          <leafValues>
            -1. 5.3913664817810059e-01</leafValues></_></weakClassifiers></_></stages>
  <features>
    <_>
      <rects>
        <_>
          0 3 20 3 -1.</_>
        <_>
          5 3 10 3 2.</_></rects>
      <tilted>0</tilted></_>
    <_>
      <rects>
        <_>
          0 5 6 6 -1.</_>
        <_>
          0 5 3 3 2.</_>
        <_>
          3 8 3 3 2.</_></rects>
      <tilted>0</tilted></_>
    <_>
      <rects>
        <_>
          2 1 3 2 -1.</_>
        <_>
          3 2 1 2 3.</_></rects>
      <tilted>1</tilted></_>
    <_>
      <rects>
        <_>
          2 15 16 4 -1.</_>
        <_>
          6 15 8 4 2.</_></rects>
      <tilted>0</tilted></_>
    <_>
      <rects>
        <_>
          4 4 13 12 -1.</_>
        <_>
          4 8 13 4 3.</_></rects>
      <tilted>0</tilted></_>
    <_>
      <rects>
        <_>
          4 6 11 9 -1.</_>
        <_>
          4 9 11 3 3.</_></rects>
      <tilted>0</tilted></_>
    <_>
      <rects>
        <_>
          5 6 12 8 -1.</_>
        <_>
          5 8 12 4 2.</_></rects>
      <tilted>0</tilted></_>
    <_>
      <rects>
        <_>
          8 5 4 3 -1.</_>
        <_>
          8 6 4 1 3.</_></rects>
      <tilted>0</tilted></_>
    <_>
      <rects>
        <_>
          8 12 4 2 -1.</_>
        <_>
          8 13 4 1 2.</_></rects>
      <tilted>0</tilted></_>
    <_>
      <rects>
        <_>
          13 15 6 1 -1.</_>
        <_>
          16 15 3 1 2.</_></rects>
      <tilted>0</tilted></_></features></cascade>
</opencv_storage>
