<?xml version="1.0"?>
<opencv_storage>
<cascade>
  <stageType>BOOST</stageType>
  <featureType>HAAR</featureType>
  <height>20</height>
  <width>20</width>
  <stageParams>
    <boostType>GAB</boostType>
    <minHitRate>9.9989998340606689e-01</minHitRate>
    <maxFalseAlarm>4.9999998882412910e-03</maxFalseAlarm>
    <weightTrimRate>9.4999999999999996e-01</weightTrimRate>
    <maxDepth>1</maxDepth>
    <maxWeakCount>100</maxWeakCount></stageParams>
  <featureParams>
    <maxCatCount>0</maxCatCount>
    <featSize>1</featSize>
    <mode>ALL</mode></featureParams>
  <stageNum>2</stageNum>
  <stages>
    <!-- stage 0 -->
    <_>
      <maxWeakCount>1</maxWeakCount>
      <stageThreshold>9.9814444780349731e-01</stageThreshold>
      <weakClassifiers>
        <_>
          <internalNodes>
            0 -1 3 2.6166731119155884e-01</internalNodes>
          <leafValues>
            -9.9971377849578857e-01 9.9814444780349731e-01</leafValues></_></weakClassifiers></_>
    <!-- stage 1 -->
    <_>
      <maxWeakCount>8</maxWeakCount>
      <stageThreshold>-2.0418226718902588e-02</stageThreshold>
      <weakClassifiers>
        <_>
          <internalNodes>
            0 -1 0 -4.6570919454097748e-02</internalNodes>
          <leafValues>
            8.9610564708709717e-01 -9.7623574733734131e-01</leafValues></_>
        <_>
          <internalNodes>
            0 -1 2 -4.0109369903802872e-02</internalNodes>
          <leafValues>
            8.3933484554290771e-01 -9.6668577194213867e-01</leafValues></_>
        <_>
          <internalNodes>
            0 -1 5 -5.7986253523267806e-05</internalNodes>
          <leafValues>
            -9.9913954734802246e-01 6.6458159685134888e-01</leafValues></_>
        <_>
          <internalNodes>
            0 -1 1 5.9927944093942642e-03</internalNodes>
          <leafValues>
            -8.0326271057128906e-01 8.1792289018630981e-01</leafValues></_>
        <_>
          <internalNodes>
            0 -1 6 5.9895487502217293e-03</internalNodes>
          <leafValues>
            -7.0627975463867188e-01 9.2638778686523438e-01</leafValues></_>
        <_>
          <internalNodes>
            0 -1 7 6.2287412583827972e-03</internalNodes>
          <leafValues>
            -8.4873074293136597e-01 7.4594181776046753e-01</leafValues></_>
        <_>
          <internalNodes>
            0 -1 8 5.7154810056090355e-03</internalNodes>
          <leafValues>
            -6.5380823612213135e-01 8.6563354730606079e-01</leafValues></_>
        <_>
          <internalNodes>
            0 -1 4 2.5745239853858948e-01</internalNodes>
          <leafValues>
            -9.6020150184631348e-01 5.9164118766784668e-01</leafValues></_></weakClassifiers></_></stages>
  <features>
    <_>
      <rects>
        <_>
          0 3 20 3 -1.</_>
        <_>
          5 3 10 3 2.</_></rects>
      <tilted>0</tilted></_>
    <_>
      <rects>
        <_>
          0 9 4 1 -1.</_>
        <_>
          2 9 2 1 2.</_></rects>
      <tilted>0</tilted></_>
    <_>
      <rects>
        <_>
          2 15 16 4 -1.</_>
        <_>
          6 15 8 4 2.</_></rects>
      <tilted>0</tilted></_>
    <_>
      <rects>
        <_>
          4 6 11 9 -1.</_>
        <_>
          4 9 11 3 3.</_></rects>
      <tilted>0</tilted></_>
    <_>
      <rects>
        <_>
          5 5 10 9 -1.</_>
        <_>
          5 8 10 3 3.</_></rects>
      <tilted>0</tilted></_>
    <_>
      <rects>
        <_>
          8 12 4 2 -1.</_>
        <_>
          8 13 4 1 2.</_></rects>
      <tilted>0</tilted></_>
    <_>
      <rects>
        <_>
          11 7 1 3 -1.</_>
        <_>
          11 8 1 1 3.</_></rects>
      <tilted>0</tilted></_>
    <_>
      <rects>
        <_>
          13 15 6 1 -1.</_>
        <_>
          16 15 3 1 2.</_></rects>
      <tilted>0</tilted></_>
    <_>
      <rects>
        <_>
          17 4 2 3 -1.</_>
        <_>
          18 4 1 3 2.</_></rects>
      <tilted>0</tilted></_></features></cascade>
</opencv_storage>
